tree
version=v4
num_class=1
num_tree_per_iteration=1
label_index=0
max_feature_idx=41
objective=binary sigmoid:1
feature_names=weekday stock_code_encoded pct_chg_lag1 small_net_lag1 medium_net_lag1 large_net_lag1 super_large_net_lag1 total_net_lag1 vol_lag1 amount_lag1 pct_chg_lag2 small_net_lag2 medium_net_lag2 large_net_lag2 super_large_net_lag2 total_net_lag2 vol_lag2 amount_lag2 pct_chg_lag3 small_net_lag3 medium_net_lag3 large_net_lag3 super_large_net_lag3 total_net_lag3 vol_lag3 amount_lag3 pct_chg_lag4 small_net_lag4 medium_net_lag4 large_net_lag4 super_large_net_lag4 total_net_lag4 vol_lag4 amount_lag4 pct_chg_lag5 small_net_lag5 medium_net_lag5 large_net_lag5 super_large_net_lag5 total_net_lag5 vol_lag5 amount_lag5
feature_infos=[0:4] none [-7.4202000000000004:9.2924000000000007] [-1414.6600000000001:391.94] [-98842.440000000002:140692.20000000001] [-86704.240000000005:66626.389999999999] [-181277.84:160001.57000000001] [-286288.48999999999:338156.90000000002] [10321.040000000001:194709.47] [1445537.257:35114075.006999999] [-7.4202000000000004:9.2924000000000007] [-1414.6600000000001:391.94] [-98842.440000000002:140692.20000000001] [-86704.240000000005:66626.389999999999] [-181277.84:160001.57000000001] [-286288.48999999999:338156.90000000002] [10321.040000000001:194709.47] [1445537.257:35114075.006999999] [-7.4202000000000004:9.2924000000000007] [-1414.6600000000001:391.94] [-98842.440000000002:140692.20000000001] [-86704.240000000005:66626.389999999999] [-181277.84:160001.57000000001] [-286288.48999999999:338156.90000000002] [10321.040000000001:194709.47] [1445537.257:35114075.006999999] [-7.4202000000000004:9.2924000000000007] [-1414.6600000000001:391.94] [-98842.440000000002:140692.20000000001] [-86704.240000000005:66626.389999999999] [-181277.84:160001.57000000001] [-286288.48999999999:338156.90000000002] [10321.040000000001:194709.47] [1445537.257:35114075.006999999] [-7.4202000000000004:9.2924000000000007] [-1414.6600000000001:391.94] [-98842.440000000002:140692.20000000001] [-86704.240000000005:66626.389999999999] [-181277.84:160001.57000000001] [-286288.48999999999:338156.90000000002] [10321.040000000001:194709.47] [1445537.257:35114075.006999999]
tree_sizes=1777 1911 1815 1910 1906 1809 1812 2016 1919 1919 1915 1909 1928 1922 1919 2016 1817 1923 1703 1919 2128 1920

Tree=0
num_leaves=16
num_cat=0
split_feature=29 18 26 30 38 40 40 7 19 29 29 7 22 28 17
split_gain=15.6144 10.5575 12.7636 11.0285 10.079 8.43729 9.74348 8.38439 9.17794 8.38434 7.8822 7.19646 7.89873 5.99946 4.83815
threshold=20825.595000000005 0.12185000000000001 0.10105000000000001 -3769.6149999999993 14527.910000000002 18857.915000000005 27818.340000000004 -28952.474999999995 5.8450000000000015 -6339.5699999999988 8861.9700000000012 32165.385000000006 2578.6400000000003 -1616.1649999999997 4323432.0845000008
decision_type=2 2 2 2 2 2 2 2 2 2 2 2 2 2 2
left_child=1 2 3 5 7 -1 -7 -3 9 -9 13 12 -5 -4 -10
right_child=-2 4 10 11 -6 6 -8 8 14 -11 -12 -13 -14 -15 -16
leaf_value=-0.132014607685223 -0.2852017036641652 -0.25874413556330289 -0.12386241583341667 -0.28809202622980556 -0.28924815525606179 -0.25945155717027785 -0.17574000034491136 -0.26930492955314289 -0.13829791761052818 -0.18404041386675055 -0.2174676226693745 -0.19213331705054368 -0.21776084379922209 -0.18553909964152704 -0.20427267182623346
leaf_weight=5.1897320151329067 7.4139028787612906 9.6380737423896772 9.6380737423896825 8.6495533585548454 6.178252398967742 5.4368621110916129 9.6380737423896772 6.9196426868438694 5.6839922070503217 4.9426019191741988 5.6839922070503226 6.178252398967742 7.4139028787612906 6.6725125908851632 5.4368621110916138
leaf_count=21 30 39 39 35 25 22 39 28 23 20 23 25 30 27 22
internal_value=-0.215111 -0.210081 -0.197684 -0.213683 -0.230691 -0.187001 -0.205931 -0.2196 -0.203185 -0.233778 -0.166763 -0.237993 -0.255631 -0.149094 -0.170552
internal_weight=110.714 103.3 64.501 42.5064 38.7994 20.2647 15.0749 32.6212 22.9831 11.8622 21.9946 22.2417 16.0635 16.3106 11.1209
internal_count=448 418 261 172 157 82 61 132 93 48 89 90 65 66 45
is_linear=0
shrinkage=1


Tree=1
num_leaves=17
num_cat=0
split_feature=29 9 24 29 39 12 34 25 33 39 27 30 20 4 27 37
split_gain=14.21 10.0703 14.5674 10.5829 8.26813 7.06378 7.13038 6.86364 10.5982 7.83393 8.47642 6.5577 5.88744 4.85491 4.20084 2.67137
threshold=20825.595000000005 3597237.5020000008 15750.360000000002 4827.7300000000005 97745.005000000019 -1313.3449999999998 -0.11794999999999999 6509923.1900000004 5017963.2950000009 -55021.969999999994 -13.349999999999998 -1399.3549999999998 -3449.0299999999997 5115.8150000000005 6.2150000000000007 -1729.2149999999997
decision_type=2 2 2 2 2 2 2 2 2 2 2 2 2 2 2 2
left_child=1 2 -1 4 7 6 -4 8 9 -3 12 15 -11 -7 -12 -5
right_child=-2 3 5 11 -6 13 -8 -9 -10 10 14 -13 -14 -15 -16 -17
leaf_value=0.040949364333048632 -0.067183664683286959 -0.050287712786222183 -0.033933148044022615 0.049950030452860131 -0.053091667033556479 -0.078796460952107017 0.040997976246703469 -0.035520364550063382 0.067250779650141715 0.00056245105521676025 -0.049792655039096627 0.010070036147990477 0.069319832025483349 -0.020210252442592083 0.01460998095579495 0.10126261260819375
leaf_weight=8.6693893373012525 7.349531650543212 5.1671817749738684 8.8849981874227506 4.9536447376012811 5.427492916584014 9.361787408590315 4.9401603937149057 6.4156005382537833 9.1533469408750516 4.9422060996294013 4.9376612603664451 5.9369031786918631 8.4133577644824964 5.682588368654252 5.1970956772565842 5.1980327665805826
leaf_count=35 30 21 36 20 22 38 20 26 37 20 20 24 34 23 21 21
internal_value=-8.23337e-06 0.00477199 -0.0158895 0.0165697 0.00515059 -0.032958 -0.00715792 0.0122981 0.0204118 0.00545116 0.0177121 0.0518123 0.0438763 -0.0566672 -0.016767 0.076224
internal_weight=110.631 103.281 37.5389 65.7425 49.6539 28.8695 13.8252 44.2265 37.8108 28.6575 23.4903 16.0886 13.3556 15.0444 10.1348 10.1517
internal_count=448 418 152 266 201 117 56 179 153 116 95 65 54 61 41 41
is_linear=0
shrinkage=0.05


Tree=2
num_leaves=16
num_cat=0
split_feature=29 18 26 26 40 38 13 7 19 29 29 34 28 17 6
split_gain=12.9567 9.24704 10.9573 9.72908 9.23822 9.0691 8.35912 7.49635 7.95363 7.26711 7.05334 6.13575 5.26235 4.27943 3.93601
threshold=20825.595000000005 0.12185000000000001 0.10105000000000001 -1.4023999999999999 20141.445000000003 14527.910000000002 -2105.4149999999995 -28952.474999999995 5.8450000000000015 -6339.5699999999988 8861.9700000000012 0.61995000000000011 -1616.1649999999997 4323432.0845000008 -759.61999999999989
decision_type=2 2 2 2 2 2 2 2 2 2 2 2 2 2 2
left_child=1 2 3 -1 6 7 -5 -3 9 -9 12 14 -4 -10 -6
right_child=-2 5 10 4 11 -7 -8 8 13 -11 -12 -13 -14 -15 -16
leaf_value=0.054302148967804137 -0.064523128111249176 -0.041488767897675603 0.084774898065296311 0.054684650185462175 -0.01717248756075972 -0.070713542552479941 -0.025412386729156723 -0.050823754313940955 0.071592030831390416 0.028637122474567425 -0.0033171440613895264 0.014825270802151026 0.027175946660189871 0.0096797492538591226 -0.067252142680639906
leaf_weight=7.1786840558052054 7.2719062864780417 9.5754590481519681 9.721152007579807 8.1739740520715696 6.8956968933343878 6.1083177626132956 5.4154717773199073 6.8487386107444737 5.7256002128124219 4.9620967805385634 5.6905543804168692 5.6802590936422339 6.6974359452724466 5.4457305520772934 9.1027639806270617
leaf_count=29 30 39 39 33 28 25 22 28 23 20 23 23 27 22 37
internal_value=-1.56816e-05 0.00452882 0.0161108 0.00124399 -0.00955577 -0.0148082 0.0227655 -0.00431947 0.011167 -0.0174398 0.0446531 -0.0298166 0.0612793 0.0414114 -0.0456667
internal_weight=110.494 103.222 64.556 42.4468 35.2682 38.6659 13.5894 32.5576 22.9822 11.8108 22.1091 21.6787 16.4186 11.1713 15.9985
internal_count=448 418 261 172 143 157 55 132 93 48 89 88 66 45 65
is_linear=0
shrinkage=0.05


Tree=3
num_leaves=17
num_cat=0
split_feature=29 9 24 29 39 17 41 40 12 33 34 30 36 4 38 9
split_gain=11.8342 8.91797 12.5463 9.27054 7.42726 6.57056 9.22378 6.8323 6.45184 6.45049 6.2108 5.85251 5.59711 4.33492 3.87249 2.64917
threshold=20825.595000000005 3597237.5020000008 15750.360000000002 4827.7300000000005 97745.005000000019 3717201.6710000006 4449941.1730000013 20236.885000000006 -1313.3449999999998 4307845.2030000007 -0.18759999999999996 -1399.3549999999998 4495.8100000000004 5115.8150000000005 -4575.0599999999986 5153918.972000001
decision_type=2 2 2 2 2 2 2 2 2 2 2 2 2 2 2 2
left_child=1 2 -1 4 5 12 7 -7 9 -4 -8 15 -3 -10 -9 -5
right_child=-2 3 8 11 -6 6 10 14 13 -11 -12 -13 -14 -15 -16 -17
leaf_value=0.037403989265248981 -0.062072337933323354 0.01050765429140429 -0.032116673230727359 0.096104141199006607 -0.05077188116339372 0.010881333161850065 0.0044065689133153231 -0.018183458710641278 -0.075118855347883665 0.039215970663443379 0.072231779586141576 0.0088291721930144965 0.080737854157896249 -0.019546154494769208 -0.079536374577514377 0.045156125327283414
leaf_weight=8.6948952674865705 7.1833147108554831 5.9155601114034635 8.8240437358617765 5.2288187891244906 5.384439840912818 8.1744538843631762 8.8766433596611005 4.9096050262451119 9.2256165742874128 4.945466250181199 5.446036845445632 5.9410685747861853 5.4513219594955444 5.6632190048694619 5.4016042202711141 4.9830872267484665
leaf_count=35 30 24 36 21 22 33 36 20 38 20 22 24 22 23 22 20
internal_value=-2.17309e-05 0.00430297 -0.0152047 0.0153918 0.00467018 0.0114279 7.75356e-05 -0.0232585 -0.0311661 -0.00649679 0.0301963 0.0482873 0.0441886 -0.0539808 -0.0503236 0.0712431
internal_weight=110.249 103.066 37.3532 65.7126 49.5597 44.1752 32.8083 18.4857 28.6583 13.7695 14.3227 16.153 11.3669 14.8888 10.3112 10.2119
internal_count=448 418 152 266 201 179 133 75 117 56 58 65 46 61 42 41
is_linear=0
shrinkage=0.05


Tree=4
num_leaves=17
num_cat=0
split_feature=29 18 23 22 31 41 30 36 27 27 2 13 7 11 18 21
split_gain=10.824 8.30457 8.71557 10.6155 9.40595 9.10389 9.0558 8.16045 7.55944 6.77889 6.14208 6.06428 5.48742 5.41488 4.62219 2.2124
threshold=20825.595000000005 0.42760000000000004 -10283.24 6892.6600000000008 10227.380000000003 4813478.7885000007 6981.0200000000013 909.44000000000017 -11.874999999999998 -8.8699999999999992 -1.0000000180025095e-35 3899.6450000000004 -6524.8249999999989 -23.614999999999995 -0.79999999999999993 11906.155000000001
decision_type=2 2 2 2 2 2 2 2 2 2 2 2 2 2 2 2
left_child=1 2 3 4 8 11 -5 15 14 10 -9 12 -4 -6 -1 -3
right_child=-2 7 5 6 13 -7 -8 9 -10 -11 -12 -13 -14 -15 -16 -17
leaf_value=0.022175880363630402 -0.05980150443696669 -0.070621903754705603 0.070195838074559744 0.06475415722570016 0.054696090813960374 0.074419169299860352 -0.018969671603892853 -0.014470891741558892 -0.074673921880823377 -0.043263607175725735 0.058549353291322249 -0.031602277076947419 0.0019754770019837441 -0.015170705331090106 -0.03535303815771363 -0.026107879622298952
leaf_weight=5.6740042716264698 7.0857618749141684 6.5410963296890277 5.4604862034320858 9.4268079996108991 5.9563872814178467 9.6899703890085203 4.9130110144615164 5.379215374588969 7.5750652998685881 5.389362931251525 6.198082134127616 5.1503557115793219 6.4054897576570538 5.189351946115492 9.0772492140531522 4.8691794872283936
leaf_count=23 30 27 22 38 24 39 20 22 31 22 25 21 26 21 37 20
internal_value=-2.77862e-05 0.00408847 0.0128541 7.42418e-05 -0.0153464 0.0357337 0.0360693 -0.0189302 -0.0340738 0.00305826 0.0246216 0.0137041 0.0333691 0.0221668 -0.0132248 -0.0516262
internal_weight=109.981 102.895 74.5182 47.8119 33.4721 26.7063 14.3398 28.3769 22.3263 16.9667 11.5773 17.0163 11.866 11.1457 14.7513 11.4103
internal_count=448 418 302 194 136 108 58 116 91 69 47 69 48 45 60 47
is_linear=0
shrinkage=0.05


Tree=5
num_leaves=16
num_cat=0
split_feature=29 9 24 29 39 12 34 17 41 20 31 30 0 4 9
split_gain=9.91249 7.82807 10.7738 7.99903 6.55477 5.83437 6.19729 5.81685 9.02294 6.49991 5.53267 5.15103 5.09158 3.97861 2.38348
threshold=20825.595000000005 3597237.5020000008 15750.360000000002 4827.7300000000005 97745.005000000019 -1313.3449999999998 -0.11794999999999999 3901276.6715000006 4449941.1730000013 3573.0100000000007 -24464.834999999995 -1399.3549999999998 2.5000000000000004 5115.8150000000005 5153918.972000001
decision_type=2 2 2 2 2 2 2 2 2 2 2 2 2 2 2
left_child=1 2 -1 4 7 6 -4 12 10 -10 -9 14 -3 -7 -5
right_child=-2 3 5 11 -6 13 -8 8 9 -11 -12 -13 -14 -15 -16
leaf_value=0.034180916114884462 -0.057686027346277174 0.062691008270688589 -0.031148705312021081 0.089854856178476827 -0.048126292163965967 -0.071817739382797008 0.03887676582881832 0.0034134439315027278 -0.012829361105181836 0.056842241227070447 -0.05424446682441969 0.0077586264289834636 0.00015105268284962492 -0.018302506297822728 0.041566931507681905
leaf_weight=8.7100720852613431 6.981002837419509 8.1841318011283857 8.7736042290925962 5.239979490637781 5.3233322799205771 9.0515844672918302 4.9378024637699136 8.0729378461837751 5.6682025641202918 8.1768175661563856 8.5852444767952019 5.9379741996526709 5.4029437452554694 5.6354025304317483 4.9881657809019089
leaf_count=35 30 33 36 21 22 38 20 33 23 33 35 24 22 23 20
internal_value=-3.32369e-05 0.00388615 -0.0144659 0.0142707 0.00428261 -0.0293864 -0.00593087 0.0106103 -0.00151054 0.0283184 -0.0263021 0.0448005 0.0378218 -0.0512839 0.0663053
internal_weight=109.669 102.688 37.1085 65.5797 49.4136 28.3984 13.7114 44.0903 30.5032 13.845 16.6582 16.1661 13.5871 14.687 10.2281
internal_count=448 418 152 266 201 117 56 179 124 56 68 65 55 61 41
is_linear=0
shrinkage=0.05


Tree=6
num_leaves=16
num_cat=0
split_feature=29 18 26 26 40 38 28 29 7 35 17 34 37 39 4
split_gain=9.08785 7.38373 8.79771 8.18577 8.17749 7.87512 7.05562 6.50308 6.15758 6.29128 7.56258 5.38117 4.47421 3.68333 2.93429
threshold=20825.595000000005 0.12185000000000001 0.10105000000000001 -1.4023999999999999 20141.445000000003 14527.910000000002 6854.6050000000005 8861.9700000000012 -28952.474999999995 3.0800000000000005 3901276.6715000006 0.61995000000000011 -6994.4849999999997 -13114.584999999997 2278.6900000000005
decision_type=2 2 2 2 2 2 2 2 2 2 2 2 2 2 2
left_child=1 2 3 -1 6 8 -5 12 -3 10 -10 13 -4 14 -6
right_child=-2 5 7 4 11 -7 -8 -9 9 -11 -12 -13 -14 -15 -16
leaf_value=0.049299808218559144 -0.055705421052518571 -0.037988297340654821 0.085018281999905188 -0.010983975916483632 -0.05484394263005872 -0.06652458995022878 0.061781843862396595 -0.0064689688263472392 0.063546953180420432 -0.033371090394353958 -0.0041253170734577146 0.013385308664499322 0.032408495122333784 -0.077313227614334845 -0.0017736136666328993
leaf_weight=7.175696685910224 6.870572715997695 9.4091622084379178 7.2256042361259505 7.544737368822096 4.8366221338510478 5.9577005207538596 5.9653098285198212 5.6841885447502127 7.4286692142486634 6.1032555997371665 9.2930510491132718 5.6468490064144126 9.1703249514102936 5.3309282362461134 5.6439460664987564
leaf_count=29 30 39 29 31 20 25 24 23 30 25 38 23 37 22 23
internal_value=-3.7557e-05 0.00369692 0.0140498 0.000654921 -0.00932726 -0.0137127 0.0211455 0.0396164 -0.00395164 0.0100793 0.0259383 -0.0285127 0.0555934 -0.043476 -0.0262648
internal_weight=109.287 102.416 64.2242 42.1441 34.9684 38.1918 13.51 22.0801 32.2341 22.825 16.7217 21.4583 16.3959 15.8115 10.4806
internal_count=448 418 261 172 143 157 55 89 132 93 68 88 66 65 43
is_linear=0
shrinkage=0.05


Tree=7
num_leaves=18
num_cat=0
split_feature=29 9 24 29 25 33 27 25 12 34 26 25 18 20 4 13 33
split_gain=8.3396 7.02626 9.34297 7.28103 5.90898 8.89333 6.48847 5.71727 5.29481 5.73632 4.724 4.1165 3.88819 6.72921 3.87445 3.72078 0.956773
threshold=20825.595000000005 3597237.5020000008 15750.360000000002 4827.7300000000005 6509923.1900000004 5721282.5205000015 -13.349999999999998 3981059.9420000003 -1313.3449999999998 -0.11794999999999999 0.56050000000000011 3345095.2595000006 0.17555000000000001 14561.965000000002 1750.0050000000003 -8938.2449999999972 3996908.8520000004
decision_type=2 2 2 2 2 2 2 2 2 2 2 2 2 2 2 2 2
left_child=1 2 -1 4 5 6 7 11 9 -4 14 -3 13 -8 -5 -10 -17
right_child=-2 3 8 10 -6 -7 12 -9 15 -11 -12 -13 -14 -15 -16 16 -18
leaf_value=0.031339321777332556 -0.053842501442845907 0.025499217576775392 -0.030029562277492608 0.032633062843452083 -0.036208680270377873 0.06201130225015198 0.036089447164268006 0.04797551542820596 -0.013010469780335713 0.037456672919828592 0.0082555775821373922 -0.039269448707689163 -0.058241626096069934 -0.046859005076029116 0.09509522317615976 -0.050713801405794484 -0.082178456845289405
leaf_weight=8.694413483142851 6.7558112740516654 4.9435286968946439 8.7061744928359968 4.9606012552976626 7.769466519355773 7.1549225300550452 4.9239235520362872 9.3626354336738569 4.7902403026819202 4.9328643679618844 6.1950628608465186 4.8699401170015335 5.3111433386802664 4.8567320257425308 4.970024049282074 4.697886601090433 4.9741367846727371
leaf_count=35 30 20 36 20 32 29 20 38 20 20 25 20 22 20 20 20 21
internal_value=-4.12207e-05 0.00351826 -0.0139564 0.0133623 0.00380441 0.0113095 0.00072324 0.0200246 -0.0279707 -0.00562165 0.0425191 -0.00664227 -0.0238016 -0.00509986 0.0638938 -0.0490475 -0.0668955
internal_weight=108.87 102.114 36.7957 65.318 49.1923 41.4228 34.2679 19.1761 28.1013 13.639 16.1257 9.81347 15.0918 9.78066 9.93063 14.4623 9.67202
internal_count=448 418 152 266 201 169 140 78 117 56 65 40 62 40 40 61 41
is_linear=0
shrinkage=0.05


Tree=8
num_leaves=17
num_cat=0
split_feature=29 18 26 26 40 38 9 29 7 19 29 34 28 39 17 39
split_gain=7.65897 6.39494 7.89725 7.30021 7.39685 7.13949 6.6747 5.70171 5.47401 5.88809 5.85362 4.74129 4.03393 3.33644 3.25744 2.8085
threshold=20825.595000000005 0.12185000000000001 0.10105000000000001 -1.4023999999999999 20141.445000000003 14527.910000000002 3408408.1560000004 8861.9700000000012 -28952.474999999995 5.8450000000000015 -6339.5699999999988 0.61995000000000011 -1616.1649999999997 -13114.584999999997 4323432.0845000008 -61849.18499999999
decision_type=2 2 2 2 2 2 2 2 2 2 2 2 2 2 2 2
left_child=1 2 3 -1 6 8 -5 12 -3 10 -10 13 -4 15 -11 -6
right_child=-2 5 7 4 11 -7 -8 -9 9 14 -12 -13 -14 -15 -16 -17
leaf_value=0.04625621735155485 -0.052082773576137976 -0.035974018634606732 0.072931302430617614 -0.027482852861732517 -0.049701765956412673 -0.06380918485423126 0.046010711550174721 -0.0059673747757931755 -0.045963788000362521 0.061924199623471482 0.025868041208906584 0.011731014127930716 0.022385068503386608 -0.074243158810494841 0.0077888891851068719 0.002359083709826557
leaf_weight=7.1552057415246955 6.6378861665725699 9.3032179623842222 9.6493918150663411 4.8016968816518775 5.5333182662725413 5.833677038550376 8.6633608490228635 5.6635067313909522 6.6580801904201481 5.7041121870279294 4.9408050775527999 5.6464012563228598 6.6795938462018976 5.2427850961685225 5.4183767139911652 4.8710325360298157
leaf_count=29 30 39 39 20 23 25 35 23 28 23 20 23 27 22 22 20
internal_value=-4.49598e-05 0.00334936 0.0129965 0.000264552 -0.00920303 -0.0129354 0.0198026 0.0372613 -0.00366812 0.00955946 -0.0153654 -0.0275449 0.0522547 -0.0417179 0.0355519 -0.0253283
internal_weight=108.402 101.765 63.9063 41.9138 34.7586 37.8583 13.4651 21.9925 32.0246 22.7214 11.5989 21.2935 16.329 15.6471 11.1225 10.4044
internal_count=448 418 261 172 143 157 55 89 132 93 48 88 66 65 45 43
is_linear=0
shrinkage=0.05


Tree=9
num_leaves=17
num_cat=0
split_feature=29 9 24 29 39 25 33 39 22 41 38 29 34 35 30 37
split_gain=7.03899 6.23831 8.15986 6.40606 5.66935 4.92752 7.51198 5.93273 6.49029 9.08433 4.92322 4.80214 4.53136 4.49988 4.47688 2.30743
threshold=20825.595000000005 3597237.5020000008 15750.360000000002 4827.7300000000005 97745.005000000019 6509923.1900000004 5017963.2950000009 -55021.969999999994 236.56000000000003 4181103.5000000005 3127.1300000000006 -4751.8499999999995 -0.034099999999999991 -6.9849999999999985 -1399.3549999999998 -1729.2149999999997
decision_type=2 2 2 2 2 2 2 2 2 2 2 2 2 2 2 2
left_child=1 2 -1 4 5 6 7 -3 9 -9 11 -4 -12 -10 15 -5
right_child=-2 3 10 14 -6 -7 -8 8 13 -11 12 -13 -14 -15 -16 -17
leaf_value=0.029010884405746552 -0.050413956722790434 -0.045556794684003372 0.019278854808355828 0.035653807487122928 -0.045682755453456236 -0.03158513544879004 0.055774238863558014 -0.043716487493464892 0.073483288206448366 0.043327684593708546 -0.081085454863820322 -0.035923126832706119 -0.019635212701043687 0.0080228228148209405 0.0052948662715979738 0.08336246561486442
leaf_weight=8.6571930497884733 6.5178121626377097 5.0518264919519416 7.9108338505029661 4.9574845731258401 5.2354878783226004 6.2828873395919791 9.1026083528995496 7.7278207242488914 5.668940931558609 4.8968490958213806 6.070288673043251 7.8482986986637151 5.9313367754220945 4.8898299634456617 5.9094418138265601 5.1851860433816919
leaf_count=35 30 21 33 20 22 26 37 32 23 20 26 33 25 20 24 21
internal_value=-4.7982e-05 0.00319181 -0.013371 0.0124847 0.00348097 0.00938174 0.0162753 0.00354144 0.0142403 -0.00995385 -0.0265878 -0.00821261 -0.0507161 0.0431682 0.0398884 0.0600437
internal_weight=107.844 101.326 36.418 64.9084 48.8563 43.6208 37.3379 28.2353 23.1834 12.6247 27.7608 15.7591 12.0016 10.5588 16.0521 10.1427
internal_count=448 418 152 266 201 179 153 116 95 52 117 66 51 43 65 41
is_linear=0
shrinkage=0.05


Tree=10
num_leaves=17
num_cat=0
split_feature=29 18 23 22 31 41 30 27 36 27 13 2 7 11 18 21
split_gain=6.47276 5.81145 7.10542 8.62513 7.46626 7.03958 6.9579 6.20878 6.17153 5.40575 4.74027 4.61287 4.58385 4.42029 3.89861 1.98402
threshold=20825.595000000005 0.42760000000000004 -10283.24 6892.6600000000008 10227.380000000003 4813478.7885000007 4456.1000000000013 -11.874999999999998 909.44000000000017 -8.8699999999999992 3899.6450000000004 -1.0000000180025095e-35 -6524.8249999999989 -23.614999999999995 -0.79999999999999993 11906.155000000001
decision_type=2 2 2 2 2 2 2 2 2 2 2 2 2 2 2 2
left_child=1 2 3 4 7 10 -5 14 15 11 12 -10 -4 -6 -1 -3
right_child=-2 8 5 6 13 -7 -8 -9 9 -11 -12 -13 -14 -15 -16 -17
leaf_value=0.019256913885121917 -0.048825562816582804 -0.064255362403294533 0.062852615299167858 0.061581775474090675 0.047977707356656525 0.065406867263651733 -0.0092341579003543655 -0.069714797076240342 -0.012390048295222951 -0.039440472618162553 -0.028922302519994683 0.051392228375789661 0.00019174016658943455 -0.015654549637830639 -0.033933079703238937 -0.02121026331936994
leaf_weight=5.6322933882474873 6.3964685797691336 6.2230038642883319 5.4126267433166531 8.1207323521375638 5.8560033887624741 9.5680660009384138 6.0548174232244483 7.338986992836003 5.2666961550712612 5.2327360957860938 5.0351135879755011 6.1389103233814231 6.3341304212808636 5.1113784015178663 8.8709474653005582 4.6977556645870209
leaf_count=23 30 27 22 33 24 39 25 31 22 22 21 25 26 21 37 20
internal_value=-5.06047e-05 0.00304162 0.0103979 -0.00125731 -0.0153386 0.0311804 0.0313341 -0.03224 -0.0165334 0.00263584 0.0116665 0.0219399 0.0290644 0.0183217 -0.0132769 -0.0457388
internal_weight=107.291 100.894 73.3351 46.9852 32.8096 26.3499 14.1755 21.8422 27.5591 16.6383 16.7819 11.4056 11.7468 10.9674 14.5032 10.9208
internal_count=448 418 302 194 136 108 58 91 116 69 69 47 48 45 60 47
is_linear=0
shrinkage=0.05


Tree=11
num_leaves=17
num_cat=0
split_feature=29 9 24 29 39 12 34 17 41 40 34 31 30 38 4 9
split_gain=5.95489 5.5133 7.03284 5.5606 5.03869 4.83245 4.93829 4.58593 6.36963 5.17306 5.02844 4.75894 4.01897 3.55997 3.53211 2.18926
threshold=20825.595000000005 3597237.5020000008 15750.360000000002 4827.7300000000005 97745.005000000019 -1313.3449999999998 -0.11794999999999999 3717201.6710000006 4449941.1730000013 20236.885000000006 -0.18759999999999996 -25577.285 -1399.3549999999998 -4575.0599999999986 5115.8150000000005 5153918.972000001
decision_type=2 2 2 2 2 2 2 2 2 2 2 2 2 2 2 2
left_child=1 2 -1 4 7 6 -4 11 9 -9 -10 -3 15 -11 -7 -5
right_child=-2 3 5 12 -6 14 -8 8 10 13 -12 -13 -14 -15 -16 -17
leaf_value=0.026634785350232379 -0.04730864400359161 0.00079219392640071076 -0.026694605787722099 0.079424528079442502 -0.043492817911714977 -0.065761257620941593 0.036311171281003439 0.0093323726425832976 0.0010084556874698596 -0.013324268635695309 0.062592276728931903 0.066262050474165654 0.0044874739247943015 -0.073109732702173844 -0.014369762286925637 0.032730530716931272
leaf_weight=8.6241225004196149 6.274615377187728 5.107430025935173 8.5080591440200788 5.1170194596052152 5.1540775448083869 8.5384298264980298 4.9016936421394357 8.0554423183202761 8.7211440950632078 4.7700539529323507 5.3468672186136237 6.0797606855630857 5.8863979876041403 5.2091722339391762 5.4952108860015878 4.927519217133522
leaf_count=35 30 21 36 21 22 38 20 33 36 20 22 25 24 22 23 20
internal_value=-5.28701e-05 0.00289919 -0.0127509 0.0116675 0.00324051 -0.0251279 -0.00366398 0.00880457 -0.000802263 -0.0204729 0.0244148 0.0363723 0.037293 -0.0445324 -0.0456377 0.056518
internal_weight=106.717 100.442 36.0675 64.3749 48.4439 27.4434 13.4098 43.2899 32.1027 18.0347 14.068 11.1872 15.9309 9.97923 14.0336 10.0445
internal_count=448 418 152 266 201 117 56 179 133 75 58 46 65 42 61 41
is_linear=0
shrinkage=0.05


Tree=12
num_leaves=17
num_cat=0
split_feature=29 18 26 38 26 40 13 29 14 17 35 34 34 37 39 4
split_gain=5.4805 5.25451 6.31974 6.19775 6.08581 6.47748 5.93858 5.23679 4.79929 10.0244 5.20064 4.403 4.09233 3.75024 3.24006 2.5491
threshold=20825.595000000005 0.12185000000000001 0.10105000000000001 14527.910000000002 -1.4023999999999999 20141.445000000003 -2105.4149999999995 8861.9700000000012 -12765.754999999999 3901276.6715000006 -6.5649999999999986 -1.0000000180025095e-35 0.61995000000000011 -6994.4849999999997 -13114.584999999997 2278.6900000000005
decision_type=2 2 2 2 2 2 2 2 2 2 2 2 2 2 2 2
left_child=1 2 4 8 -1 6 -6 13 -3 10 -10 -11 14 -4 15 -7
right_child=-2 3 7 -5 5 12 -8 -9 9 11 -12 -13 -14 -15 -16 -17
leaf_value=0.04233925274483076 -0.045855508987404515 0.030033858258533885 0.075278175280478685 -0.060550016463076506 0.045457553786864696 -0.050312012227216166 -0.023041187622024159 -0.0081779096574160146 0.040437599946496032 -0.081729520653061521 -0.023532024458565164 -0.016407382391450898 0.010683341859442457 0.026581372145895288 -0.071880304079839155 -0.00013961433096072558
leaf_weight=7.059492588043212 6.1529061198234549 7.9578846096992519 7.0486907660961196 5.6157647371292105 8.0821133702993375 4.6670971959829295 5.1999260038137427 5.6036313623189917 7.7313199639320391 5.5935778766870499 5.3938788175582886 4.7877447605133039 5.5676778852939597 9.0041126906871796 5.1081940680742308 5.5328330546617508
leaf_count=29 30 33 29 25 33 20 22 23 32 24 23 20 23 37 22 23
internal_value=-5.52188e-05 0.00276413 0.011568 -0.0121638 7.74825e-05 -0.00865687 0.0186403 0.0334371 -0.00352785 -0.0148898 0.0141489 -0.0516037 -0.0260244 0.0479638 -0.0393753 -0.0230966
internal_weight=106.107 99.9539 62.8738 37.0802 41.2173 34.1578 13.282 21.6564 31.4644 23.5065 13.1252 10.3813 20.8758 16.0528 15.3081 10.1999
internal_count=448 418 261 157 172 143 55 89 132 99 55 44 88 66 65 43
is_linear=0
shrinkage=0.05


Tree=13
num_leaves=17
num_cat=0
split_feature=29 9 24 12 29 39 17 0 18 26 41 39 26 29 4 10
split_gain=5.0451 4.91147 6.3898 5.34215 4.99764 4.52636 4.14167 6.33681 5.49502 6.75359 4.52969 4.20289 3.88801 3.88448 3.17336 2.3879
threshold=20825.595000000005 3516737.1345000002 16098.485000000002 -1313.3449999999998 4827.7300000000005 97745.005000000019 3717201.6710000006 2.5000000000000004 -0.030799999999999998 -0.75044999999999995 4226949.119500001 -22429.309999999994 0.56050000000000011 -4521.6899999999996 1750.0050000000003 1.0000000180025095e-35
decision_type=2 2 2 2 2 2 2 2 2 2 2 2 2 2 2 2
left_child=1 2 -1 13 5 6 7 -3 9 -8 -10 -11 14 -4 -6 -5
right_child=-2 4 3 15 12 -7 8 -9 10 11 -12 -13 -14 -15 -16 -17
leaf_value=0.024459937282638275 -0.044459551057597149 0.06442911401039407 0.024620246238420868 -0.032242364804719668 0.026575753053252826 -0.041936028345348528 0.058956752742711428 -0.010777241191612561 -0.057505635034458706 -0.038123070838198339 0.0018404348135695589 0.018409224311265387 0.0051121988678262346 -0.030937782688602863 0.083893494413797343 -0.077552003754389753
leaf_weight=8.5707947462797147 6.0319009423255912 6.8175704479217512 6.4579943269491196 8.133902579545973 4.8937122374773043 5.0961817800998679 6.1125393807887987 4.7540940791368484 6.1937415003776568 5.4876850694417909 6.6863769143819809 8.2010393440723472 6.6184142082929602 6.1349024027585983 4.7671342790126801 4.5258629769086847
leaf_count=35 30 28 27 36 20 22 25 20 27 23 28 34 27 26 20 20
internal_value=-5.8673e-05 0.0026343 -0.0128434 -0.0255042 0.0106112 0.00268645 0.00782517 0.0335314 -0.00127676 0.0152588 -0.0266977 -0.00425406 0.0346343 -0.00244605 0.0548591 -0.0484405
internal_weight=105.484 99.4519 33.8235 25.2527 65.6285 49.3492 44.253 11.5717 32.6814 19.8013 12.8801 13.6887 16.2793 12.5929 9.66085 12.6598
internal_count=448 418 144 109 274 207 185 48 137 82 55 57 67 53 40 56
is_linear=0
shrinkage=0.05


Tree=14
num_leaves=17
num_cat=0
split_feature=27 9 4 13 34 38 20 31 22 15 9 18 25 27 28 32
split_gain=4.74352 6.07178 7.6526 7.11687 5.86976 6.52899 5.74209 6.23691 5.56621 5.18533 5.02315 5.4879 4.39879 4.13193 3.32537 1.62521
threshold=-11.874999999999998 3434995.0605000006 19901.670000000002 -4215.619999999999 -1.1570499999999997 -4249.2549999999992 3767.2550000000006 -18698.064999999999 6892.6600000000008 25371.915000000005 2929791.5055000004 -0.12899999999999998 4293087.6815000009 69.550000000000011 19169.830000000005 24523.245000000003
decision_type=2 2 2 2 2 2 2 2 2 2 2 2 2 2 2 2
left_child=1 10 6 -4 -2 9 7 -3 13 12 11 -1 -6 15 -8 -7
right_child=4 2 3 -5 5 8 14 -9 -10 -11 -12 -13 -14 -15 -16 -17
leaf_value=-0.037695124398802467 -0.064493055249258843 -0.014518237781089797 0.033933870112439583 -0.043980562086110966 0.032582854698793642 -0.035108216272234004 0.077116253301595356 0.049657214543611355 0.011511795161918437 0.062040486386216787 -0.046678944693115391 0.030544095009815437 -0.030404142837638773 -0.00031431456528938339 0.025648177964224608 -0.07420812841898157
leaf_weight=4.6674294024705896 4.8497403413057318 8.7678837776184064 4.8485698401927948 7.4100541770458204 5.3190572112798673 4.678455203771593 8.4123009145259839 6.6629404723644283 7.7015805989503852 4.7802392542362204 7.3092801272869101 7.9899337738752374 5.7881903201341629 4.4992784261703482 5.0059304535388938 6.1528856158256531
leaf_count=20 21 37 20 32 23 20 35 28 33 20 32 34 25 20 21 27
internal_value=-5.95818e-05 0.00894379 0.0199311 -0.0131636 -0.0126226 -0.00615904 0.0339937 0.0131924 -0.0231676 0.0184984 -0.013677 0.00538074 -0.000240824 -0.0405894 0.0579151 -0.0573194
internal_weight=104.844 61.0743 41.1077 12.2586 43.7694 38.9197 28.8491 15.4308 23.0322 15.8875 19.9666 12.6574 11.1072 15.3306 13.4182 10.8313
internal_count=448 259 173 52 189 168 121 65 100 68 86 54 48 67 56 47
is_linear=0
shrinkage=0.05


Tree=15
num_leaves=18
num_cat=0
split_feature=29 18 23 22 31 3 40 26 36 13 27 23 11 6 11 27 21
split_gain=4.57417 4.50551 5.96855 7.21636 6.58592 6.30084 6.16689 5.42806 5.17555 4.52501 4.52288 4.06555 3.64617 2.7153 2.48369 4.51536 1.82124
threshold=20825.595000000005 0.42760000000000004 -10283.24 6892.6600000000008 10227.380000000003 -11.539999999999997 25034.690000000006 -0.92594999999999994 909.44000000000017 1290.1350000000002 -8.8699999999999992 57610.80000000001 -23.614999999999995 5318.7150000000011 -24.544999999999998 -11.874999999999998 11906.155000000001
decision_type=2 2 2 2 2 2 2 2 2 2 2 2 2 2 2 2 2
left_child=1 2 3 4 7 -5 9 -1 16 -4 11 -10 -6 -8 15 -9 -3
right_child=-2 8 6 5 12 -7 13 14 10 -11 -12 -13 -14 -15 -16 -17 -18
leaf_value=0.0080528226976539132 -0.042875511668885313 -0.060555633647419851 0.026180384857837614 0.061759301962336068 0.044221950949786246 -0.0055386423352804023 0.070647449897793577 0.0013969792894567346 -0.00695725950845785 -0.035935257852874151 -0.036416016142674798 0.053627190586231492 -0.014122272882859719 0.024388001774165901 -0.07384075288884856 -0.067838282818350804 -0.018595413522964978
leaf_weight=6.283325552940366 5.8866697102785102 5.9509086012840289 7.9337765276432055 6.9938263297080994 5.7479637563228607 6.9187389910221082 7.9251547753810865 4.9265867918729738 6.1176738888025302 4.6506063491106033 5.0845636129379264 5.0589670091867447 5.0134550482034665 5.2892999798059464 5.5532132238149723 4.5113985389471045 4.5734529197216034
leaf_count=26 30 27 33 29 24 29 33 21 26 20 22 21 21 22 24 20 20
internal_value=-6.09826e-05 0.00249689 0.00902969 -0.00177633 -0.0148344 0.0282919 0.0282755 -0.0309581 -0.0150017 0.00322531 0.00267978 0.0204655 0.0170409 0.0521314 -0.0473089 -0.0316978 -0.0423215
internal_weight=104.42 98.5329 71.7473 45.9485 32.0359 13.9126 25.7988 21.2745 26.7856 12.5844 16.2612 11.1766 10.7614 13.2145 14.9912 9.43799 10.5244
internal_count=448 418 302 194 136 58 108 91 116 53 69 47 45 55 65 41 47
is_linear=0
shrinkage=0.05


Tree=16
num_leaves=16
num_cat=0
split_feature=29 18 26 38 30 40 40 7 22 29 14 17 35 34 37
split_gain=4.21253 4.16668 5.51137 5.40193 5.23154 5.73369 6.06088 4.6777 5.20363 4.45792 4.14957 8.67326 4.46492 4.04915 3.30256
threshold=20825.595000000005 0.12185000000000001 0.10105000000000001 14527.910000000002 -3769.6149999999993 18857.915000000005 27818.340000000004 32165.385000000006 2578.6400000000003 8861.9700000000012 -12765.754999999999 3901276.6715000006 -6.5649999999999986 -1.0000000180025095e-35 -6994.4849999999997
decision_type=2 2 2 2 2 2 2 2 2 2 2 2 2 2 2
left_child=1 2 4 10 5 -1 -7 8 -6 14 -3 12 -12 -13 -4
right_child=-2 3 9 -5 7 6 -8 -9 -10 -11 11 13 -14 -15 -16
leaf_value=0.063994333727051017 -0.041585326146491172 0.02835418662514861 0.070484648669764102 -0.057290249077997714 -0.060870012178628245 -0.041006954684565222 0.026487917510671196 0.019414502700739175 -0.0019073945181017416 -0.0077139420361478335 0.037767687528810746 -0.078157165553293911 -0.021997791879827332 -0.014642213366180396 0.024317337085915897
leaf_weight=5.0465114116668728 5.7688671797513953 7.85909076035023 6.8651893436908731 5.3837260901927939 7.856365919113161 5.2124547660350791 9.1907656192779523 6.0111632794141761 7.1449827998876572 5.5388721972703925 7.6550697684288043 5.3728874623775482 5.2807839959859848 4.7081419527530652 8.8895717710256577
leaf_count=21 30 33 29 25 35 22 39 25 30 23 32 24 23 20 37
internal_value=-6.33738e-05 0.00238047 0.0102798 -0.0110733 -0.000555979 0.0181311 0.00206185 -0.0178533 -0.0327867 0.03087 -0.00301466 -0.0137255 0.0133697 -0.0484938 0.0444349
internal_weight=103.784 98.0156 61.7559 36.2597 40.4622 19.4497 14.4032 21.0125 15.0013 21.2936 30.876 23.0169 12.9359 10.081 15.7548
internal_count=448 418 261 157 172 82 61 90 65 89 132 99 55 44 66
is_linear=0
shrinkage=0.05


Tree=17
num_leaves=17
num_cat=0
split_feature=11 18 31 20 24 16 23 9 27 27 11 18 20 41 26 26
split_gain=4.11311 5.14961 4.84293 5.79064 4.62261 5.41137 4.19961 4.00028 4.99439 6.09505 4.54076 4.25837 4.06393 3.7526 2.84735 2.67876
threshold=100.32000000000001 2.1254500000000003 11009.810000000001 29782.890000000003 26055.050000000003 18983.690000000006 13191.215000000002 3408408.1560000004 -12.319999999999999 -43.414999999999992 -57.79999999999999 -0.030799999999999998 4376.2100000000009 4082306.4870000002 -0.3925499999999999 -0.85754999999999992
decision_type=2 2 2 2 2 2 2 2 2 2 2 2 2 2 2 2
left_child=1 2 7 4 5 -4 -6 12 9 11 -10 15 14 -7 -1 -9
right_child=-2 -3 3 -5 6 13 -8 8 10 -11 -12 -13 -14 -15 -16 -17
leaf_value=0.022274306069760604 -0.034583530594923688 -0.044120529176453073 0.044622877902164071 -0.031628700815203303 0.085785794452564623 -0.039068127960770332 0.02381123958707454 0.048483529743809033 -0.055808116712701285 0.053601499667674385 0.0052600433090210456 -0.027318240530879147 -0.052347353426553216 0.022276085449749832 -0.030275526305043762 -0.0016322411623062604
leaf_weight=5.3269082903862008 7.9635637402534476 5.5037066340446463 7.8103149235248628 4.5460147410631171 5.4490593671798688 5.4242471456527692 5.4851455390453339 5.0399010032415381 5.243199810385704 8.2631179094314593 7.2571017891168577 7.4214322417974499 7.0772169381380072 4.6133258193731308 4.9947071224451074 5.6618374288082114
leaf_count=23 34 25 34 20 23 24 24 21 23 35 32 32 32 20 22 24
internal_value=-6.57855e-05 0.00282417 0.00570732 0.0208126 0.0290955 0.0134117 0.0546962 -0.00323694 0.00567922 0.0180126 -0.0203547 0.00178612 -0.0231646 -0.010874 -0.00315495 0.0219694
internal_weight=103.081 95.1172 89.6135 33.3281 28.7821 17.8479 10.9342 56.2854 38.8866 26.3863 12.5003 18.1232 17.3988 10.0376 10.3216 10.7017
internal_count=448 414 389 145 125 78 47 244 167 112 55 77 77 44 45 45
is_linear=0
shrinkage=0.05


Tree=18
num_leaves=15
num_cat=0
split_feature=29 21 11 9 31 2 7 21 19 41 21 41 2 28
split_gain=3.898 3.93616 6.1155 6.54838 7.84073 5.62416 7.93314 6.43368 4.89719 4.75407 3.44049 3.42699 3.2139 2.79346
threshold=20825.595000000005 -15021.404999999999 100.32000000000001 4630839.2930000005 -25853.319999999996 -0.26574999999999999 -30771.909999999996 8605.510000000002 -51.544999999999995 4449941.1730000013 -29787.654999999995 4485834.3140000012 -0.40419999999999995 1513.3450000000003
decision_type=2 2 2 2 2 2 2 2 2 2 2 2 2 2
left_child=1 10 3 5 -5 6 9 8 -7 -3 -1 -6 -12 -10
right_child=-2 2 -4 4 11 7 -8 -9 13 -11 12 -13 -14 -15
leaf_value=-0.014281445120792872 -0.040414603002292201 0.015373208727858837 -0.050174691377637297 -0.017361303014227284 0.0215524980949259 0.0012540046235676549 0.045103955198111084 0.023176547412263104 -0.030818973005548589 -0.050605957392728718 0.0066811306445799211 0.070058573985024394 0.051892185871371746 -0.073496692054815752
leaf_weight=5.1439755260944393 5.6556811183691016 5.3955491483211535 6.3098827302455893 7.6562844365835216 7.4918246865272504 6.0857662707567242 9.148437634110449 5.6746128946542731 7.8168840855360049 5.526752233505249 6.8318315744400069 7.0848661810159683 9.2570233345031703 7.5256232768297195
leaf_count=22 30 24 27 33 32 26 39 24 34 25 29 30 39 34
internal_value=-6.5265e-05 0.00228857 -0.00304653 0.00123798 0.0236091 -0.00930554 0.0107565 -0.0241623 -0.0366985 -0.0180127 0.0213136 0.0451284 0.0326942 -0.0517527
internal_weight=102.605 96.9493 75.7165 69.4066 22.233 47.1736 20.0707 27.1029 21.4283 10.9223 21.2328 14.5767 16.0889 15.3425
internal_count=448 418 328 301 95 206 88 118 94 49 90 62 68 68
is_linear=0
shrinkage=0.05


Tree=19
num_leaves=17
num_cat=0
split_feature=29 9 24 12 29 13 11 31 18 19 6 26 29 4 30 36
split_gain=3.59014 3.57851 5.20469 4.80288 3.86708 3.94683 5.38291 5.0265 4.30549 3.8199 3.65172 3.29394 3.25589 2.78176 2.28119 2.10898
threshold=20825.595000000005 3516737.1345000002 16098.485000000002 -1313.3449999999998 4827.7300000000005 -1729.2149999999997 -71.264999999999986 11009.810000000001 -0.030799999999999998 -39.819999999999993 -5632.8199999999988 0.56050000000000011 -4521.6899999999996 1750.0050000000003 -1.0000000180025095e-35 -9100.364999999998
decision_type=2 2 2 2 2 2 2 2 2 2 2 2 2 2 2 2
left_child=1 2 -1 12 5 6 -3 9 10 -8 -7 13 -4 -6 -10 -5
right_child=-2 4 3 15 11 8 7 -9 14 -11 -12 -13 -14 -15 -16 -17
leaf_value=0.022618300544428555 -0.039201370966147356 -0.022606608201577505 0.023936123508332074 -0.072387839358684994 0.023063269949883516 -0.019587663973145611 -0.014987343068757637 0.073892789220431632 -0.060713599207648655 0.037051874017383517 0.037877913377883217 0.0032749568439469296 -0.027574672737772588 0.077820995764120549 -0.014950024637764679 -0.029193208082877866
leaf_weight=8.4271198958158475 5.5421036779880515 6.8928684592247 6.3447301089763641 4.5214821398258191 4.7752887308597547 5.6591587960720062 6.2745802402496347 4.6906863152980796 4.9824839979410172 8.0513316243886948 5.4048376828432101 6.5118263661861411 5.9394355714321136 4.5097593516111374 6.0050051659345645 7.5354011803865451
leaf_count=35 30 30 27 22 20 24 27 20 22 34 23 27 26 20 27 34
internal_value=-6.63668e-05 0.0021806 -0.0112483 -0.0229732 0.00908233 0.0020153 0.0152478 0.0289687 -0.0135322 0.0142593 0.00848466 0.0305386 -0.00096952 0.0496592 -0.0357024 -0.0453917
internal_weight=102.068 96.526 32.7682 24.341 63.7578 47.961 25.9095 19.0166 22.0515 14.3259 11.064 15.7969 12.2842 9.28505 10.9875 12.0569
internal_count=448 418 144 109 274 207 111 81 96 61 47 67 53 40 49 56
is_linear=0
shrinkage=0.05


Tree=20
num_leaves=19
num_cat=0
split_feature=27 34 38 22 15 9 4 27 13 25 10 3 25 13 27 2 41 32
split_gain=3.5911 5.24586 5.17431 5.1521 4.63549 4.51069 6.62282 4.44958 6.53698 4.14097 7.00314 4.90878 9.36349 3.84347 3.62545 3.30822 2.37361 1.52404
threshold=-11.874999999999998 -1.1570499999999997 -4249.2549999999992 6892.6600000000008 25371.915000000005 3434995.0605000006 37097.235000000008 -83.674999999999983 3664.9250000000006 5180082.7565000011 0.22930000000000003 -1.3799999999999997 3738918.2345000007 -4355.3899999999985 69.550000000000011 -0.10154999999999999 4020421.2705000001 24523.245000000003
decision_type=2 2 2 2 2 2 2 2 2 2 2 2 2 2 2 2 2 2
left_child=5 -2 4 14 13 7 9 -1 15 11 -11 16 -13 -3 17 -9 -7 -4
right_child=1 2 3 -5 -6 6 -8 8 -10 10 -12 12 -14 -15 -16 -17 -18 -19
leaf_value=-0.05383768567611924 -0.061368797410524145 0.025082253284665419 -0.031976607716975525 0.01325273520240601 0.058695508631632455 0.076156945468923945 -0.039402498172721429 0.05318889701680507 -0.049306294307657879 -0.034346787474004728 0.045093746442695343 -0.042734709542643162 0.058250997631271728 -0.035490945177824682 0.00077716173917004912 -0.0038800900734197829 0.036083734664698046 -0.07070899560796394
leaf_weight=4.7769821286201504 4.6414946019649497 6.0984439253807059 4.5016428977251071 7.4789195656776419 4.6901925951242438 6.7292723208665839 4.5399207770824423 4.9270364791154861 4.3771721273660651 6.4550869613885862 4.8652659207582474 4.5971370190382022 4.5844727754592896 4.5897201895713797 4.3071547448635092 5.2402781993150693 8.1957469284534437 5.8275004625320435
leaf_count=22 21 27 20 33 20 28 20 21 20 28 21 20 20 21 20 23 36 27
internal_value=-6.59587e-05 -0.0112263 -0.00501894 -0.0205081 0.0172556 0.00786548 0.0174545 -0.0119697 0.00178134 0.0247407 -0.000204802 0.036455 0.0076885 -0.000929139 -0.0377593 0.0237753 0.0541516 -0.0538287
internal_weight=101.423 42.1351 37.4936 22.1152 15.3784 59.2884 39.9669 19.3215 14.5445 35.427 11.3204 24.1066 9.18161 10.6882 14.6363 10.1673 14.925 10.3291
internal_count=448 189 168 100 68 259 173 86 64 153 49 104 40 48 67 44 64 47
is_linear=0
shrinkage=0.05


Tree=21
num_leaves=17
num_cat=0
split_feature=11 18 31 20 28 26 13 2 22 26 37 29 19 27 13 12
split_gain=3.32753 4.53047 3.99498 4.9747 4.02642 3.51803 3.44223 4.5354 4.52893 4.33123 4.62283 4.34617 3.19531 2.91009 2.96568 2.48496
threshold=100.32000000000001 2.1254500000000003 11009.810000000001 29782.890000000003 -16997.734999999997 0.21875000000000003 -1729.2149999999997 -1.0670999999999997 10364.070000000002 -0.3925499999999999 1943.1050000000002 -5767.7849999999989 -32.324999999999996 -59.189999999999991 6560.6000000000013 7173.3500000000013
decision_type=2 2 2 2 2 2 2 2 2 2 2 2 2 2 2 2
left_child=1 2 6 4 -4 -6 7 -1 13 10 12 -11 -9 -8 -15 -7
right_child=-2 -3 3 -5 5 15 8 9 -10 11 -12 -13 -14 14 -16 -17
leaf_value=0.050234324722728201 -0.031366069052420543 -0.042141557982324995 -0.0034474361162978801 -0.030035832789707485 0.010837192533932285 0.036348140187365513 -0.0054871436591823024 0.0077576065216738502 0.022910639627435642 -0.061192732576124023 -0.020283180204628274 0.0030090010528203118 0.066026197911684084 -0.068811262664000464 -0.016375720829665135 0.080895117183447024
leaf_weight=5.3049182295799282 7.832198739051818 5.3405451327562323 7.873389124870303 4.4399383366107932 7.2816871553659466 7.7991160750389081 7.8504076898098036 4.5272019058465958 5.4949477016925803 4.6411168128252029 5.312435880303382 6.1016445308923704 4.8986193984746951 6.0410577803850174 4.8707690685987473 5.2298262864351273
leaf_count=23 34 25 36 20 32 35 35 20 24 21 23 27 21 28 22 22
internal_value=-6.69253e-05 0.00256878 0.00529247 0.0191566 0.0269061 0.0386725 -0.00292476 0.00817421 -0.017011 -0.000582331 0.0170172 -0.0247276 0.0380399 -0.028703 -0.0454053 0.0542293
internal_weight=100.84 93.0076 87.6671 32.624 28.184 20.3106 55.0431 30.7859 24.2572 25.481 14.7383 10.7428 9.42582 18.7622 10.9118 13.0289
internal_count=448 414 389 145 125 89 244 135 109 112 64 48 41 85 50 57
is_linear=0
shrinkage=0.05


end of trees

feature_importances:
large_net_lag4=39
pct_chg_lag4=19
pct_chg_lag3=18
amount_lag1=17
small_net_lag4=17
pct_chg_lag5=15
total_net_lag5=13
large_net_lag2=12
medium_net_lag1=11
super_large_net_lag5=11
vol_lag5=11
amount_lag5=11
amount_lag2=10
super_large_net_lag4=10
total_net_lag4=10
total_net_lag1=9
small_net_lag2=9
super_large_net_lag3=9
vol_lag3=9
medium_net_lag2=8
amount_lag3=8
medium_net_lag3=7
medium_net_lag4=7
pct_chg_lag1=6
small_net_lag3=6
large_net_lag3=6
large_net_lag5=6
total_net_lag3=5
amount_lag4=5
medium_net_lag5=5
small_net_lag5=4
super_large_net_lag1=3
weekday=2
small_net_lag1=2
pct_chg_lag2=2
super_large_net_lag2=2
total_net_lag2=2
vol_lag4=2
vol_lag2=1

parameters:
[boosting: gbdt]
[objective: binary]
[metric: auc]
[tree_learner: serial]
[device_type: cpu]
[data_sample_strategy: bagging]
[data: ]
[valid: ]
[num_iterations: 500]
[learning_rate: 0.05]
[num_leaves: 31]
[num_threads: 0]
[seed: 0]
[deterministic: 0]
[force_col_wise: 0]
[force_row_wise: 0]
[histogram_pool_size: -1]
[max_depth: -1]
[min_data_in_leaf: 20]
[min_sum_hessian_in_leaf: 0.001]
[bagging_fraction: 1]
[pos_bagging_fraction: 1]
[neg_bagging_fraction: 1]
[bagging_freq: 0]
[bagging_seed: 3]
[bagging_by_query: 0]
[feature_fraction: 1]
[feature_fraction_bynode: 1]
[feature_fraction_seed: 2]
[extra_trees: 0]
[extra_seed: 6]
[early_stopping_round: 0]
[early_stopping_min_delta: 0]
[first_metric_only: 0]
[max_delta_step: 0]
[lambda_l1: 0]
[lambda_l2: 0]
[linear_lambda: 0]
[min_gain_to_split: 0]
[drop_rate: 0.1]
[max_drop: 50]
[skip_drop: 0.5]
[xgboost_dart_mode: 0]
[uniform_drop: 0]
[drop_seed: 4]
[top_rate: 0.2]
[other_rate: 0.1]
[min_data_per_group: 100]
[max_cat_threshold: 32]
[cat_l2: 10]
[cat_smooth: 10]
[max_cat_to_onehot: 4]
[top_k: 20]
[monotone_constraints: ]
[monotone_constraints_method: basic]
[monotone_penalty: 0]
[feature_contri: ]
[forcedsplits_filename: ]
[refit_decay_rate: 0.9]
[cegb_tradeoff: 1]
[cegb_penalty_split: 0]
[cegb_penalty_feature_lazy: ]
[cegb_penalty_feature_coupled: ]
[path_smooth: 0]
[interaction_constraints: ]
[verbosity: -1]
[saved_feature_importance_type: 0]
[use_quantized_grad: 0]
[num_grad_quant_bins: 4]
[quant_train_renew_leaf: 0]
[stochastic_rounding: 1]
[linear_tree: 0]
[max_bin: 255]
[max_bin_by_feature: ]
[min_data_in_bin: 3]
[bin_construct_sample_cnt: 200000]
[data_random_seed: 1]
[is_enable_sparse: 1]
[enable_bundle: 1]
[use_missing: 1]
[zero_as_missing: 0]
[feature_pre_filter: 1]
[pre_partition: 0]
[two_round: 0]
[header: 0]
[label_column: ]
[weight_column: ]
[group_column: ]
[ignore_column: ]
[categorical_feature: ]
[forcedbins_filename: ]
[precise_float_parser: 0]
[parser_config_file: ]
[objective_seed: 5]
[num_class: 1]
[is_unbalance: 0]
[scale_pos_weight: 1]
[sigmoid: 1]
[boost_from_average: 1]
[reg_sqrt: 0]
[alpha: 0.9]
[fair_c: 1]
[poisson_max_delta_step: 0.7]
[tweedie_variance_power: 1.5]
[lambdarank_truncation_level: 30]
[lambdarank_norm: 1]
[label_gain: ]
[lambdarank_position_bias_regularization: 0]
[eval_at: ]
[multi_error_top_k: 1]
[auc_mu_weights: ]
[num_machines: 1]
[local_listen_port: 12400]
[time_out: 120]
[machine_list_filename: ]
[machines: ]
[gpu_platform_id: -1]
[gpu_device_id: -1]
[gpu_use_dp: 0]
[num_gpu: 1]

end of parameters

pandas_categorical:[]
